{
  "input_nodes": 5,
  "hidden_nodes": 8,
  "output_nodes": 2,
  "weights_ih": {
    "rows": 8,
    "cols": 5,
    "data": [
      [
        0.8552319384097797,
        0.5841651933769452,
        -0.5299798716719233,
        0.21126518249059378,
        0.8281203523462273
      ],
      [
        -0.10883718930633246,
        -1.1349850602329694,
        -0.8572435353393184,
        0.09041232576229241,
        -0.1517237365936005
      ],
      [
        0.7290344695714277,
        -0.6278271344936122,
        0.4005247741536768,
        -0.24376499312123245,
        -0.822798865612387
      ],
      [
        -0.6070126815142751,
        -0.1398998088030745,
        0.021197358981271286,
        0.324360633304269,
        -0.9235834169408355
      ],
      [
        -0.7800561903349894,
        -0.2534393294395806,
        -0.5050731911020092,
        0.6374695389329168,
        -0.8502209093240867
      ],
      [
        -0.5543356225514584,
        -0.7217162826308925,
        0.03376568784941103,
        -0.8995651508042322,
        -0.8170079609497847
      ],
      [
        -0.16156438707587117,
        -0.7894889558531032,
        0.2337334229638921,
        0.5067010251436941,
        -0.8019211031752904
      ],
      [
        0.934777101552994,
        -0.5419149173591586,
        0.8261297775602101,
        0.48285534908396066,
        0.8839115327874234
      ]
    ]
  },
  "weights_ho": {
    "rows": 2,
    "cols": 8,
    "data": [
      [
        -0.30137014790214445,
        -0.6179324498098051,
        0.7246355838851535,
        -0.7505552475795196,
        -0.3671779391160606,
        -0.40353018884924885,
        0.009563527047699694,
        0.786210036533155
      ],
      [
        0.5853214789985306,
        -0.20658807329287243,
        -0.228551556118747,
        0.5806071652965776,
        0.4650799877443572,
        0.9280079931468437,
        -0.682374149902631,
        0.1565489069829884
      ]
    ]
  },
  "bias_h": {
    "rows": 8,
    "cols": 1,
    "data": [
      [
        0.5773209373161232
      ],
      [
        0.01731426419518911
      ],
      [
        -0.33099974977128643
      ],
      [
        -0.16100689363018428
      ],
      [
        -0.2348237938484612
      ],
      [
        -0.8519164445666889
      ],
      [
        -0.6188021253073428
      ],
      [
        0.07631325984226267
      ]
    ]
  },
  "bias_o": {
    "rows": 2,
    "cols": 1,
    "data": [
      [
        -0.01043282658333089
      ],
      [
        -0.5942885830487579
      ]
    ]
  },
  "learning_rate": 0.1,
  "activation_function": {}
}
